digraph Tree {
node [shape=box, style="filled, rounded", color="black", fontname=helvetica] ;
edge [fontname=helvetica] ;
0 [label=<trip_distance &le; 8.265<br/>mse = 1.585<br/>samples = 97898<br/>value = 0.284>, fillcolor="#fdf7f2"] ;
1 [label=<trip_distance &le; 7.315<br/>mse = 0.316<br/>samples = 90336<br/>value = 0.046>, fillcolor="#fffefe"] ;
0 -> 1 [labeldistance=2.5, labelangle=45, headlabel="True"] ;
2 [label=<mse = 0.221<br/>samples = 89067<br/>value = 0.029>, fillcolor="#ffffff"] ;
1 -> 2 ;
3 [label=<mse = 5.595<br/>samples = 1269<br/>value = 1.206>, fillcolor="#f7dac4"] ;
1 -> 3 ;
4 [label=<trip_distance &le; 16.025<br/>mse = 7.949<br/>samples = 7562<br/>value = 3.133>, fillcolor="#eb9d65"] ;
0 -> 4 [labeldistance=2.5, labelangle=-45, headlabel="False"] ;
5 [label=<mse = 7.857<br/>samples = 5325<br/>value = 2.765>, fillcolor="#eda877"] ;
4 -> 5 ;
6 [label=<mse = 7.079<br/>samples = 2237<br/>value = 4.009>, fillcolor="#e58139"] ;
4 -> 6 ;
}